<NeuralNetwork>
   <Inputs>
      <InputsNumber>13</InputsNumber>
      <Input Index="1">atakowane</Input>
      <Input Index="2">krolowe_dif</Input>
      <Input Index="3">wieze_dif</Input>
      <Input Index="4">gonce_dif</Input>
      <Input Index="5">konie_dif</Input>
      <Input Index="6">piony_dif</Input>
      <Input Index="7">przemieszczenie_x</Input>
      <Input Index="8">przemieszczenie_y</Input>
      <Input Index="9">zbicie</Input>
      <Input Index="10">typ_figury</Input>
      <Input Index="11">typ_zbitej</Input>
      <Input Index="12">specjalne</Input>
      <Input Index="13">wartosc_delta</Input>
   </Inputs>
   <Layers>
      <LayersTypes>Scaling Perceptron Perceptron Unscaling Bounding</LayersTypes>
      <ScalingLayer>
         <ScalingNeuronsNumber>13</ScalingNeuronsNumber>
         <ScalingNeuron Index="1">
            <Minimum>-1</Minimum>
            <Maximum>1</Maximum>
            <Mean>0</Mean>
            <StandardDeviation>1</StandardDeviation>
            <ScalingMethod>MinimumMaximum</ScalingMethod>
         </ScalingNeuron>
         <ScalingNeuron Index="2">
            <Minimum>-1</Minimum>
            <Maximum>1</Maximum>
            <Mean>0</Mean>
            <StandardDeviation>1</StandardDeviation>
            <ScalingMethod>MinimumMaximum</ScalingMethod>
         </ScalingNeuron>
         <ScalingNeuron Index="3">
            <Minimum>-1</Minimum>
            <Maximum>1</Maximum>
            <Mean>0</Mean>
            <StandardDeviation>1</StandardDeviation>
            <ScalingMethod>MinimumMaximum</ScalingMethod>
         </ScalingNeuron>
         <ScalingNeuron Index="4">
            <Minimum>-1</Minimum>
            <Maximum>1</Maximum>
            <Mean>0</Mean>
            <StandardDeviation>1</StandardDeviation>
            <ScalingMethod>MinimumMaximum</ScalingMethod>
         </ScalingNeuron>
         <ScalingNeuron Index="5">
            <Minimum>-1</Minimum>
            <Maximum>1</Maximum>
            <Mean>0</Mean>
            <StandardDeviation>1</StandardDeviation>
            <ScalingMethod>MinimumMaximum</ScalingMethod>
         </ScalingNeuron>
         <ScalingNeuron Index="6">
            <Minimum>-1</Minimum>
            <Maximum>1</Maximum>
            <Mean>0</Mean>
            <StandardDeviation>1</StandardDeviation>
            <ScalingMethod>MinimumMaximum</ScalingMethod>
         </ScalingNeuron>
         <ScalingNeuron Index="7">
            <Minimum>-1</Minimum>
            <Maximum>1</Maximum>
            <Mean>0</Mean>
            <StandardDeviation>1</StandardDeviation>
            <ScalingMethod>MinimumMaximum</ScalingMethod>
         </ScalingNeuron>
         <ScalingNeuron Index="8">
            <Minimum>-1</Minimum>
            <Maximum>1</Maximum>
            <Mean>0</Mean>
            <StandardDeviation>1</StandardDeviation>
            <ScalingMethod>MinimumMaximum</ScalingMethod>
         </ScalingNeuron>
         <ScalingNeuron Index="9">
            <Minimum>-1</Minimum>
            <Maximum>1</Maximum>
            <Mean>0</Mean>
            <StandardDeviation>1</StandardDeviation>
            <ScalingMethod>MinimumMaximum</ScalingMethod>
         </ScalingNeuron>
         <ScalingNeuron Index="10">
            <Minimum>-1</Minimum>
            <Maximum>1</Maximum>
            <Mean>0</Mean>
            <StandardDeviation>1</StandardDeviation>
            <ScalingMethod>MinimumMaximum</ScalingMethod>
         </ScalingNeuron>
         <ScalingNeuron Index="11">
            <Minimum>-1</Minimum>
            <Maximum>1</Maximum>
            <Mean>0</Mean>
            <StandardDeviation>1</StandardDeviation>
            <ScalingMethod>MinimumMaximum</ScalingMethod>
         </ScalingNeuron>
         <ScalingNeuron Index="12">
            <Minimum>-1</Minimum>
            <Maximum>1</Maximum>
            <Mean>0</Mean>
            <StandardDeviation>1</StandardDeviation>
            <ScalingMethod>MinimumMaximum</ScalingMethod>
         </ScalingNeuron>
         <ScalingNeuron Index="13">
            <Minimum>-1</Minimum>
            <Maximum>1</Maximum>
            <Mean>0</Mean>
            <StandardDeviation>1</StandardDeviation>
            <ScalingMethod>MinimumMaximum</ScalingMethod>
         </ScalingNeuron>
      </ScalingLayer>
      <PerceptronLayer>
         <InputsNumber>13</InputsNumber>
         <NeuronsNumber>64</NeuronsNumber>
         <ActivationFunction>HyperbolicTangent</ActivationFunction>
         <Parameters>1.38321 0.00192499 -0.805603 0.658605 -0.0896687 0.826477 0.781071 0.469846 1.16209 0.204906 -0.232142 -1.72261 0.477917 -0.680745 -6.03097e-06 0.157948 0.909778 -0.362904 0.732199 0.424585 -2.14441 -0.536143 1.25501 -1.9477 -0.601655 -0.911529 1.14283 1.1648 -0.350616 1.04984 -0.0185139 0.465498 -0.631408 0.467688 1.08871 0.700869 1.13913 -0.221855 0.919289 -0.215352 -0.232557 1.39916 -0.0278715 -0.0105468 -1.51214 0.736161 0.0233226 0.359108 -1.71186 1.16841 -0.507053 0.148511 -0.643765 -0.324997 -0.778266 0.636951 -1.7523 -0.554428 1.59313 -1.01958 0.806916 0.565671 -0.391547 -0.806722 0.432827 -0.641788 -0.130873 0.0477764 -0.0355377 -0.554633 1.26188 -1.44625 -0.499338 1.63514 0.967997 -0.788421 0.308186 1.3557 -0.00149677 1.57405 0.542672 -0.02156 -0.416749 -0.443106 0.806073 -0.164602 -0.167652 -1.64776 0.755522 -0.0256234 1.59207 -0.0342286 0.441231 0.644272 -0.999154 0.708744 -0.0715172 0.568043 -3.18754 -1.3742 0.0536986 0.00272398 -1.28807 0.710992 -0.137428 1.14712 -1.83573 -0.0522342 2.24761 -1.7262 -1.62384 -0.365228 -0.501759 2.02159 -0.418419 0.587287 -1.3661 1.24318 -1.02335 -0.447153 -0.642009 -0.254125 -1.31788 1.27274 -1.5906 0.92767 1.09198 1.00208 0.97255 0.333641 -1.46905 -0.306191 -0.335663 -0.987426 -1.19757 1.59608 -0.0577622 1.18628 0.329738 2.03744 0.302144 1.22237 0.285272 0.747173 -0.602801 0.381835 -0.129595 -0.821221 0.523633 0.0271653 -0.399372 1.29705 0.983905 -0.197591 -0.776728 -1.16468 -0.932185 0.643264 0.987318 1.47094 -1.82981 0.106485 -0.538733 -0.797324 -0.946805 -1.94528 -0.697105 -1.98084 -0.767793 -0.6015 7.70452e-05 1.09489 -0.0491578 -0.660433 -1.34474 1.46676 -0.23672 0.179226 0.13943 -2.12046 -0.269121 -0.395555 0.407868 -3.16552 0.998802 -0.0024941 2.4226 1.77958 -1.30129 -0.200133 -1.66426 -0.729133 0.057619 -0.231273 -1.53875 0.376 -7.49769e-08 -0.0694242 0.886875 0.252127 0.672472 1.38188 0.387072 1.47598 0.256666 -0.85794 -1.13608 -1.22928 0.859991 -0.0699566 0.00115429 -0.991099 0.300998 -0.921072 2.44736 0.89086 -0.409743 -0.486817 0.759663 0.293253 -0.473137 -1.31807 -0.594706 0.42214 1.65316 -0.332328 -0.0494505 -1.08383 -0.154556 0.238191 0.384603 0.903185 2.06419 -1.55191 1.12472 -1.91325 0.585751 -0.428764 -0.154808 -0.512909 -0.378115 -0.304648 -0.0814083 -0.801383 0.872771 -2.19095 0.663933 -1.39509 1.40735 3.00257e-08 -0.00903963 -0.931309 0.989451 -0.138905 -0.0560243 -0.928323 0.244991 1.42426 -1.7698 0.288864 0.668216 -0.047712 -1.16054 -0.818083 -0.109171 0.528048 0.139824 -0.579611 -0.866103 0.86391 2.89153 1.50735 0.36622 0.25749 -0.429478 0.264801 -0.541684 -0.0779799 -1.08412 -0.172989 -0.337256 0.835472 0.885394 -1.62443 0.514247 0.227306 -2.01908 0.235886 -0.507816 -1.07907 -1.68174 0.0441141 -0.903242 0.79393 -1.37044 -0.202476 -1.31512 -1.23509 1.55401 0.130352 -2.56398 0.390433 2.39343 0.677991 0.596122 -0.546393 0.740753 -0.585819 -0.499963 0.467866 0.612648 0.174427 -0.80128 -0.652143 -0.269131 -1.06919 -0.850447 -0.643749 -0.290309 0.0518324 0.721632 -1.30707 1.04882 -2.98232 0.324907 1.36768 -0.639998 1.33598 1.91458 -0.249478 0.354048 -0.384808 0.207298 1.0609 -0.774263 -2.31189 -1.38175 -0.260857 1.16572 -1.36661 0.0220459 0.48933 -0.0836192 0.46968 0.0100749 -0.439208 -0.226373 0.846718 1.00478 -1.07497 -0.379182 -0.262724 -0.715774 0.153606 -0.572027 0.104564 -0.404465 -0.565944 0.0993129 -0.740809 0.401265 1.59154 -0.218628 0.126078 0.125929 -0.133384 0.30409 0.0130351 0.247963 -1.4668 1.34956 0.429556 1.16073 0.798619 0.00240676 0.250728 2.69958 0.913643 -0.437696 -0.203789 0.000147119 -0.66739 0.0113075 0.871228 -0.344462 0.682425 -0.422544 1.16295 0.0665593 1.93593 -1.01795 -1.22761 -0.795497 -0.249751 0.792186 0.484935 -0.0925602 1.59665 1.15663 1.05594 0.178859 1.31806 1.81291 -2.33949 -0.340355 0.953912 -1.13454 -0.0241228 0.628118 0.587626 -0.169095 0.102076 -0.847195 -0.718899 -0.871363 0.719811 0.253604 -0.933765 4.47107e-05 -0.112007 -0.154609 0.654933 0.114058 -1.88952 -3.61699 0.742818 0.614072 0.18257 -1.46651 0.148172 -0.00416695 0.0690758 0.158636 1.61182 -0.86748 0.994183 0.051646 0.506127 0.496684 1.42314 -1.33793 -0.398842 -0.283269 2.08378 1.27207 1.05705 -0.215287 -0.474232 -1.17172 -0.0932531 -0.315969 1.44183 1.37915 -0.150886 0.0353962 -0.764584 -0.561337 -1.82555 -0.979951 -0.138133 -2.53673 0.07106 0.746735 -0.857434 1.1257 -0.333214 0.290222 0.785829 -0.946947 0.337139 -1.56001e-10 -0.313656 -1.48421 0.95246 -0.975799 1.00853 -0.799738 -0.618433 -1.55898 0.0628697 -1.19462 -0.657781 0.000196597 0.242595 1.48744 -0.221379 -0.173336 0.367045 -0.516042 -0.197952 0.113886 0.58498 0.0114406 0.352921 0.0364623 -0.0193156 -0.956976 -1.33996 -0.430124 -1.34455 -1.23349 0.11024 -0.76491 0.878646 2.45943 -0.675182 -0.411465 -0.166316 -0.321238 0.0409957 0.629142 0.0317165 0.278079 1.3898 -0.283271 -0.0675146 0.530738 1.1489 0.571714 0.340878 -0.203661 0.831109 -0.431808 0.396901 -1.45777 0.426984 0.597389 -0.11653 -0.0555067 -1.7292 1.35119 1.9926 -0.144113 1.10248 1.29586 1.18925e-09 -0.49868 0.862424 0.606297 -0.087091 -0.508291 -0.316936 0.543417 0.250082 -0.296111 -1.91196 1.01952 0.545069 -0.780237 0.0606994 -1.48266 -0.585799 0.870533 -0.330535 0.475697 0.194216 0.328956 -1.28001 1.11189 1.33681 0.418335 -0.209422 -1.23273 -1.04411 0.262626 -1.73243 -0.749465 -0.303352 -0.618435 -0.0837099 1.67334 -0.892129 0.153797 -0.307692 -0.247654 0.193017 -0.393479 -0.0552579 0.995403 1.89414 0.0618996 1.508 -1.08362 -0.189169 0.0629328 1.02195 2.68427e-13 -0.177088 0.826105 1.13522 1.427 -0.355702 -0.543211 0.792041 0.19911 -0.514063 0.291873 0.279713 -0.329737 -0.511492 -0.871189 -0.788205 -0.454974 0.796111 0.0552238 0.284443 1.01206 2.26507 -0.00180871 0.391806 -0.453616 0.346868 1.47492 -3.67506e-06 0.670954 1.54426 -0.467114 2.14091 1.87197 0.895518 0.521058 -1.19334 0.489804 -1.57416 -0.108106 0.101271 -0.000939278 -0.537323 -0.476892 -0.153906 0.479365 1.67599 -1.23716 -0.908686 -1.33173 0.625282 0.691967 -1.14375 0.0504538 0.21222 -0.165169 1.62414 -0.308838 1.58853 1.32501 -0.657844 -0.870901 0.106645 -0.379895 -0.865105 -0.434724 -0.214695 0.772516 0.460987 -0.969292 -0.0682049 1.214 -2.45595 1.40386 1.54237 -0.473311 0.233417 -0.436383 -0.7594 -0.000613406 0.106121 0.545828 -0.732704 0.21301 -2.21495 -1.97482 -0.345878 0.918829 1.01085 -0.880999 2.07299 1.21046 -1.18434 0.347364 -0.601975 -0.0217378 0.829018 0.846727 -0.625527 0.805425 -0.0184916 -0.690405 0.246861 1.98121 1.9631 -0.725368 0.534158 0.643837 -1.30216 0.0158478 1.11892 1.22547 -1.36407 0.442838 0.0942864 0.00597706 1.51893 1.07686 -1.14568 0.204437 -1.13427 0.359652 -2.12034 -0.460096 0.208963 1.08102 1.62813 0.407322 1.29976 1.23631 1.44826 1.43603 -6.99166e-13 -0.158855 -0.598716 0.100799 -1.05823 -0.632495 1.42036 -0.665484 -0.834644 3.01098 -0.333144 -0.00411192 0.667818 -0.00124065 -1.82903 2.13202 -0.997345 0.406338 -0.346713 0.0442437 0.212669 0.64082 1.0011 -0.29192 -0.469293 7.24257e-11 0.251109 6.88128e-05 0.592761 1.59426 1.65008 -0.144591 0.644444 -0.805212 -0.0587316 0.429247 0.917739 0.288625 0.21928 0.0369537 -1.20769 0.268251 -1.03049 0.124259 -1.12102 -0.5927 -0.954455 0.986511 0.481829 -0.548102 1.24352 1.39724 -1.48073 0.837945 -1.27728 -0.877452 0.494169 0.236072 -0.816221 1.5911 -0.202074 -1.34023 -2.56701 1.73611 -0.562993 -0.0520376 0.69118 0.531263 0.989596 -1.46125 1.05554 -0.00072589 1.97767 0.0875812 1.17839 -1.03732 0.400855 -0.0448493 -5.99234e-05 -0.225043 0.247514 -0.144381 -0.886339 0.644101 0.664986 -0.369894 0.410443 -0.525994 1.0019 -0.576658 -0.863693 9.99825e-05 0.451204 1.84877 2.41583 0.921067 0.300898 -0.432153 -0.507068 -0.686774 1.05285 0.179057 -0.0147676 1.11358e-06 -0.940876 0.751347 -0.578195 -0.40188 1.03473 0.214462 -0.103061 1.19039 0.829513 -0.38025 0.204272 -1.41589 -1.78415 0.00636644 -0.878044 -0.572728 -1.48186 -0.086257 0.220888 1.59913 1.80095 -0.0664827 0.0211028 1.99231 -0.525533 -0.547708 -1.55558 0.975744 -1.42181 -0.625035 0.978349 -0.365177 -0.222821 0.885193 1.15658 0.444704 -0.458043 -0.00481721 0.749272 1.63721 0.122438 0.86206 0.261699 -1.39223 1.62127 -0.862323 -0.606722 1.09291 0.0890709 -0.412268 0.570579 0.539693 -0.440921 0.841161 1.8968 -1.11902 -0.159876 0.584952 -1.55064 0.464187 -0.0772863 -0.65495 -1.13741 0.71691 0.599658 -0.0978102 -1.44933 -0.257918 1.58508 0.192412 -0.0640747 0.422883 -0.649533 -0.871227 0.00774903</Parameters>
      </PerceptronLayer>
      <PerceptronLayer>
         <InputsNumber>64</InputsNumber>
         <NeuronsNumber>1</NeuronsNumber>
         <ActivationFunction>Linear</ActivationFunction>
         <Parameters>-0.718534 -0.471529 -1.85087 1.87109 1.12212 -0.857921 0.237096 0.299402 0.638692 0.390804 -0.00998984 0.299254 -0.47681 -1.25957 0.343767 0.678702 -1.46827 0.819303 0.854773 -1.99623 1.24122 -0.603627 1.39727 -1.41284 -0.8181 0.356848 -0.329812 1.359 1.24754 -0.517048 1.59667 -1.08317 1.16035 0.770554 0.154363 -0.752313 -1.83869 -0.313059 -0.220591 0.153006 -0.279043 -0.521051 -0.02492 -0.98445 0.689295 -0.623146 0.845101 0.702891 1.2288 -1.76515 -1.68559 -0.997375 -0.619883 0.915381 1.91185 -0.0486916 1.17236 -0.520411 0.214866 0.144298 0.41154 -0.574838 -0.852286 -1.01349 -1.25939</Parameters>
      </PerceptronLayer>
      <UnscalingLayer>
         <UnscalingNeuronsNumber>1</UnscalingNeuronsNumber>
         <Descriptives Index="1">
            <Minimum>-1</Minimum>
            <Maximum>1</Maximum>
            <Mean>0</Mean>
            <StandardDeviation>1</StandardDeviation>
         </Descriptives>
         <UnscalingMethod>MinimumMaximum</UnscalingMethod>
      </UnscalingLayer>
      <BoundingLayer>
         <BoundingNeuronsNumber>1</BoundingNeuronsNumber>
         <Item Index="1">
            <LowerBound>-1.79769e+308</LowerBound>
            <UpperBound>1.79769e+308</UpperBound>
         </Item>
         <UseBoundingLayer>1</UseBoundingLayer>
      </BoundingLayer>
   </Layers>
   <Outputs>
      <OutputsNumber>1</OutputsNumber>
      <Output Index="1">wynik</Output>
   </Outputs>
</NeuralNetwork>
